tree
version=v3
num_class=1
num_tree_per_iteration=1
label_index=0
max_feature_idx=115
objective=binary sigmoid:1
feature_names=feature_0 feature_1 feature_2 feature_3 feature_4 feature_5 feature_6 feature_7 feature_8 feature_9 feature_10 feature_11 feature_12 feature_13 feature_14 feature_15 feature_16 feature_17 feature_18 feature_19 feature_20 feature_21 feature_22 feature_23 feature_24 feature_25 feature_26 feature_27 feature_28 feature_29 feature_30 feature_31 feature_32 feature_33 feature_34 feature_35 feature_36 feature_37 feature_38 feature_39 feature_40 feature_41 feature_42 feature_43 feature_44 feature_45 feature_46 feature_47 feature_48 feature_49 feature_50 feature_51 feature_52 feature_53 feature_54 feature_55 feature_56 feature_57 feature_58 feature_59 feature_60 feature_61 feature_62 feature_63 feature_64 feature_65 feature_66 feature_67 feature_68 feature_69 feature_70 feature_71 feature_72 feature_73 feature_74 feature_75 feature_76 feature_77 feature_78 feature_79 feature_80 feature_81 feature_82 feature_83 feature_84 feature_85 feature_86 feature_87 feature_88 feature_89 feature_90 feature_91 feature_92 feature_93 feature_94 feature_95 feature_96 feature_97 feature_98 feature_99 feature_100 feature_101 feature_102 feature_103 feature_104 feature_105 feature_106 feature_107 feature_108 feature_109 feature_110 feature_111 feature_112 feature_113 feature_114 feature_115
feature_infos=[0:1] [0:1] [0:1] [0:1] [0:67] [1:12] [0:500] [0:1880] [1:31] [0:6] [1:36] [-286:1812] [0:69474] [-1019:689] [0:1775] [-490:1980] [0:1.3180555105209351] [0:1356338560] [0:1] [0:1] [0:1] -1:0:1 [0:1] [0:1] [0:1] [0:1] [0:1] [0:1] none [0:1] [0:1] [0:1] [0:1] [0:1] [0:1] [0:1] [0:1] [0:1] [0:1] [0:1] [0:1] [0:1] [0:1] [0:1] [0:1] [0:1] [0:1] [0:1] [0:1] [0:1] [0:1] [0:1] [0:1] none [0:1] none [0:1] [0:1] [0:1] [0:1] [0:1] [0:1] [0:1] [0:1] [0:1] [0:1] [0:1] [0:1] [0:1] [0:1] [0:1] [0:1] [0:1] [0:1] [0:1] [0:1] [0:1] [0:1] [0:1] [0:1] none [0:1] [0:1] [0:1] [0:1] [0:1] [0:1] [0:1] [0:1] [0:1] [0:1] [0:1] [0:1] [0:1] [0:1] [0:1] [0:1] [0:1] [0:1] [0:1] [0:1] [0:1] [0:1] [0:1] [0:1] [0:1] [0:1] [0:1] [0:1] [0:1] [0:1] [0:1] [0:1] [0:1] [0:1] [0:1]
tree_sizes=3369 3454 3465 3443 3445 3455 3446 3457 3458 3446

Tree=0
num_leaves=31
num_cat=1
split_feature=11 18 6 21 7 6 18 48 11 11 48 18 11 61 44 13 10 10 14 10 19 13 25 10 67 90 24 6 17 7
split_gain=3132.68 689.372 441.827 410.527 433.188 370.955 266.296 185.107 133.347 92.8691 90.7617 79.2634 62.7281 59.2317 56.7075 56.3364 52.4726 44.6559 54.7125 48.8964 41.0996 57.8563 58.624 41.8259 40.9586 47.5999 59.1833 40.4954 38.9994 36.1313
threshold=44.500000000000007 1.0000000180025095e-35 1.5000000000000002 0 1142.5000000000002 1.0000000180025095e-35 1.0000000180025095e-35 1.0000000180025095e-35 93.500000000000014 12.500000000000002 1.0000000180025095e-35 1.0000000180025095e-35 8.5000000000000018 1.0000000180025095e-35 1.0000000180025095e-35 103.50000000000001 2.5000000000000004 2.5000000000000004 153.50000000000003 15.000000000000002 1.0000000180025095e-35 56.500000000000007 1.0000000180025095e-35 1.5000000000000002 1.0000000180025095e-35 1.0000000180025095e-35 1.0000000180025095e-35 3.5000000000000004 1015343.2500000001 1540.5000000000002
decision_type=2 2 2 1 2 2 2 2 2 2 2 2 2 2 2 2 2 2 2 2 2 2 2 2 2 2 2 2 2 2
left_child=1 5 3 6 -5 10 7 8 24 -7 12 14 -1 -14 16 -9 -6 -4 -19 -20 23 22 -22 -10 25 26 -2 -11 -15 -24
right_child=2 -3 17 4 11 9 -8 15 20 27 -12 -13 13 28 -16 -17 -18 18 19 -21 21 -23 29 -25 -26 -27 -28 -29 -30 -31
leaf_value=0.3250997138566874 0.27980613618711608 0.13709882980234311 0.15642268208546917 0.14484559425315713 0.24690060005209127 0.29900510643167771 0.13709882980234311 0.31107871020070171 0.15741648020288712 0.23304329002713398 0.33573617927439248 0.13709882980234311 0.31526558985068598 0.28504503959669697 0.22096820064179779 0.14633412543895402 0.32215768376908099 0.15386582285133571 0.20696948276348973 0.34027533380778258 0.23810657750790445 0.16286755713961837 0.1672897159396976 0.32440216943235761 0.24501836096670546 0.30323511323842633 0.17356640744434509 0.16564428904277678 0.2048243311374896 0.24211140490627814
leaf_weight=339.36009620130062 41.343361973762512 59.800219997763634 362.24660015106201 283.98952212929726 57.831488475203514 47.249556541442871 56.108848392963409 125.0144516825676 4.9218288064003017 88.592918515205383 506.70227561891079 16.734217941761017 225.91194221377373 225.4197593331337 84.655455470085144 5.4140116870403281 38.636356130242348 50.69483670592308 54.386208310723305 7.8749260902404776 172.26400822401047 50.448745265603065 61.276768639683723 15.749852180480955 173.74055686593056 91.792107239365578 19.195132344961166 29.777064278721809 16.242035061120987 21.902138188481331
leaf_count=1379 168 243 1472 1154 235 192 228 508 20 360 2059 68 918 916 344 22 157 206 221 32 700 205 249 64 706 373 78 121 66 89
internal_value=0.251389 0.303532 0.206327 0.221201 0.184417 0.31026 0.242322 0.249861 0.238994 0.239744 0.319151 0.241214 0.308736 0.29686 0.250834 0.30424 0.277042 0.164982 0.19243 0.22383 0.21641 0.211798 0.221462 0.284644 0.261612 0.280537 0.24612 0.216088 0.279653 0.186991
internal_weight=0 1539.06 1796.22 1321.02 481.847 1479.26 839.172 783.063 652.634 165.62 1313.64 197.858 806.934 467.574 181.123 130.428 96.4678 475.203 112.956 62.2611 326.563 305.892 255.443 20.6717 326.071 152.331 60.5385 118.37 241.662 83.1789
internal_count=13553 6254 7299 5368 1958 6011 3410 3182 2652 673 5338 804 3279 1900 736 530 392 1931 459 253 1327 1243 1038 84 1325 619 246 481 982 338
cat_boundaries=0 1
cat_threshold=1
shrinkage=1


Tree=1
num_leaves=31
num_cat=1
split_feature=11 18 12 6 15 21 18 6 48 12 15 7 11 17 11 14 6 13 15 12 83 7 7 48 13 10 7 11 13 10
split_gain=2833.47 622.996 433.302 340.305 316.423 255.309 224.366 186.15 140.452 108.263 105.344 97.7974 83.8709 80.9505 70.6637 83.4052 67.7758 60.3782 58.0742 51.2762 49.2341 46.4998 44.7502 43.5494 43.4547 39.4735 35.8098 35.231 33.176 32.009
threshold=44.500000000000007 1.0000000180025095e-35 42.500000000000007 1.0000000180025095e-35 415.50000000000006 0 1.0000000180025095e-35 1.0000000180025095e-35 1.0000000180025095e-35 1.0000000180025095e-35 125.50000000000001 980.50000000000011 12.500000000000002 4650.1005859375009 119.50000000000001 126.50000000000001 1.5000000000000002 59.500000000000007 1811.5000000000002 19.500000000000004 1.0000000180025095e-35 1121.5000000000002 553.50000000000011 1.0000000180025095e-35 -64.499999999999986 2.5000000000000004 1652.5000000000002 12.500000000000002 18.500000000000004 1.5000000000000002
decision_type=2 2 2 2 2 1 2 2 2 2 2 2 2 2 2 2 2 2 2 2 2 2 2 2 2 2 2 2 2 2
left_child=1 3 4 10 5 8 7 13 16 17 -1 -7 -5 -6 -15 -16 24 18 20 -14 -9 -10 -11 27 -2 -17 -24 -12 29 -13
right_child=2 -3 -4 12 6 11 -8 9 21 22 23 28 19 14 15 25 -18 -19 -20 -21 -22 -23 26 -25 -26 -27 -28 -29 -30 -31
leaf_value=0.023426762979300811 -0.0018701637022986543 -0.10734707154947959 -0.097121233645850957 0.045537986772375687 -0.061416382158084343 -0.10469891052898404 -0.10777530452823676 -0.015676902272107485 0.079754264378823991 0.066553352738547483 0.071956494530639584 -0.055759340093724401 -0.00045244595720673932 0.037450979486315199 -0.074716438005295302 -0.0067106696910280766 -0.077560669508915547 -0.079447537468424423 -0.11254668450619838 -0.066141447923650162 0.065844237999757721 -0.017929372903891745 -0.067202570406878423 0.081244649774264155 -0.045440011933537382 0.059763923070932035 0.025687241693755219 0.048994143374816418 -0.086242157424107971 0.014915443651756533
leaf_weight=136.28970791399479 103.87885618209839 60.46542701125145 303.27710001170635 46.942937850952148 30.172369927167892 238.48038390278816 54.462945088744164 29.162117153406143 36.123548209667206 7.0962583124637595 372.38622616231441 36.391160950064659 59.230785846710205 284.01856696605682 33.689376428723335 64.144342631101608 87.381467759609222 16.879806250333786 7.1595833599567404 59.601679816842079 50.757283002138138 18.382336229085922 168.10638564825058 489.33078874647617 127.42882218956947 34.260377705097198 11.057895630598066 302.93426665663719 32.93411186337471 28.620668575167656
leaf_count=558 422 243 1223 192 122 959 219 118 148 29 1528 147 240 1157 136 260 352 68 29 241 206 75 679 2013 516 140 45 1239 133 116
internal_value=0 0.0499377 -0.0426115 0.0564217 -0.0315947 -0.0558351 -0.00984735 -0.00260578 -0.0273599 -0.0337772 0.0650191 -0.0874224 -0.0110466 0.017665 0.0233992 -0.00681383 -0.0400453 0.00709951 0.0238762 -0.0333995 0.0360977 0.0468101 -0.056592 0.0698863 -0.0258731 0.016433 -0.0614695 0.0616561 -0.0453573 -0.0246456
internal_weight=0 1527.18 1803.87 1466.72 1500.59 709.621 790.967 736.504 373.195 290.219 1300.94 336.426 165.775 446.285 416.113 132.094 318.689 103.959 87.079 118.832 79.9194 54.5059 186.261 1164.65 231.308 98.4047 179.164 675.32 97.9459 65.0118
internal_count=13553 6254 7299 6011 6076 2868 3208 2989 1513 1174 5338 1355 673 1815 1693 536 1290 421 353 481 324 223 753 4780 938 400 724 2767 396 263
cat_boundaries=0 1
cat_threshold=1
shrinkage=0.05


Tree=2
num_leaves=31
num_cat=1
split_feature=11 18 12 6 15 21 18 6 6 15 7 17 109 12 48 23 11 6 88 87 48 15 12 99 17 7 11 13 11 13
split_gain=2568.8 565.156 386.257 312.948 283.774 228.417 201.326 170.277 128.714 97.9616 87.681 83.7418 82.6814 79.0609 77.2838 74.2328 56.0419 55.2907 45.6179 44.3667 41.2045 38.3416 39.3967 36.921 52.4936 33.9579 32.9916 32.1393 30.1168 29.8037
threshold=44.500000000000007 1.0000000180025095e-35 42.500000000000007 1.0000000180025095e-35 415.50000000000006 0 1.0000000180025095e-35 2.5000000000000004 1.0000000180025095e-35 125.50000000000001 955.50000000000011 4650.1005859375009 1.0000000180025095e-35 58.500000000000007 1.0000000180025095e-35 1.0000000180025095e-35 12.500000000000002 1.0000000180025095e-35 1.0000000180025095e-35 1.0000000180025095e-35 1.0000000180025095e-35 1798.5000000000002 6.5000000000000009 1.0000000180025095e-35 51365.625000000007 1323.5000000000002 12.500000000000002 48.500000000000007 9.5000000000000018 74.500000000000014
decision_type=2 2 2 2 2 1 2 2 2 2 2 2 2 2 2 2 2 2 2 2 2 2 2 2 2 2 2 2 2 2
left_child=1 3 4 9 5 8 7 11 14 28 -7 25 15 16 -2 19 -5 23 21 -13 26 22 27 24 -14 -6 -11 -19 -1 -12
right_child=2 -3 -4 13 6 10 -8 -9 -10 20 29 12 17 -15 -16 -17 -18 18 -20 -21 -22 -23 -24 -25 -26 -27 -28 -29 -30 -31
leaf_value=0.053677538353190724 -0.016326604482667612 -0.10150994091634045 -0.091681717119689199 0.052840508778250798 -0.079032888815556479 -0.099331903392389051 -0.10187287266023677 -0.062689984165648124 -0.059047651005499316 0.069251817449304212 -0.031256511883245616 0.062495364752264262 -0.013372124053002683 -0.084650445890265491 0.056386001151193833 -0.10107971873273076 -0.016174368024430629 0.052088353267629166 -0.054706473467146022 -0.036846796486588548 0.078387302016220795 -0.094920071183854204 -0.027499263530653746 0.0041500671456864129 0.049751064762495002 0.027368763283787474 0.046919844655263332 -0.029713237991293842 0.0046462019531317133 -0.10268914939050965
leaf_weight=49.000608444213867 162.12339976429939 60.73655891418457 305.15123263001442 42.962322324514389 37.044203147292137 236.65129326283932 54.729131177067757 101.23516090214252 164.45564287900925 367.70145511627197 83.576515644788742 18.31467005610466 38.760880008339882 29.534248322248459 47.177417263388634 28.056547626852989 93.282075718045235 63.513765692710876 35.973857641220093 29.091364040970802 481.99324804544449 8.2072357684373838 34.507993519306183 97.530259862542152 219.15968690812588 9.4018321782350522 300.57070437073708 14.806795522570608 86.789673626422882 17.69345435500145
leaf_count=202 656 243 1223 177 149 947 219 407 662 1528 337 75 158 119 195 113 377 259 145 118 2013 33 139 397 898 38 1239 60 356 71
internal_value=0 0.0479173 -0.0403969 0.0541685 -0.0299778 -0.0528803 -0.00935462 -0.00247124 -0.025946 0.062503 -0.0826709 0.00713871 0.0122448 -0.0104882 6.31688e-05 -0.036618 0.00558828 0.0194401 -0.00527107 0.00153268 0.0672444 0.00942196 0.0170119 0.0303554 0.0402648 -0.0574945 0.0592075 0.0366235 0.0223394 -0.0437369
internal_weight=0 1512.57 1807.16 1451.83 1502.01 711.678 790.333 735.604 373.756 1286.06 337.921 634.369 587.923 165.779 209.301 75.4626 136.244 512.46 157.01 47.406 1150.27 121.036 112.829 355.451 257.921 46.446 668.272 78.3206 135.79 101.27
internal_count=13553 6254 7299 6011 6076 2868 3208 2989 1513 5338 1355 2582 2395 673 851 306 554 2089 636 193 4780 491 458 1453 1056 187 2767 319 558 408
cat_boundaries=0 1
cat_threshold=1
shrinkage=0.05


Tree=3
num_leaves=31
num_cat=1
split_feature=6 21 7 18 12 48 70 14 25 7 18 13 100 15 15 47 24 14 15 12 9 10 85 10 14 14 4 26 17 12
split_gain=1537.08 1000.18 516.558 493.397 277.59 273.072 145.044 129.689 154.948 85.5586 84.4704 76.3776 64.605 63.9914 61.9264 60.7672 53.6249 50.1861 49.81 48.7684 44.6062 55.8776 39.9793 39.8378 38.2558 38.1909 37.9245 36.3417 31.7315 29.4045
threshold=1.0000000180025095e-35 0 1176.5000000000002 1.0000000180025095e-35 15.500000000000002 1.0000000180025095e-35 1.0000000180025095e-35 6.5000000000000009 1.0000000180025095e-35 1547.5000000000002 1.0000000180025095e-35 82.500000000000014 1.0000000180025095e-35 301.50000000000006 169.50000000000003 1.0000000180025095e-35 1.0000000180025095e-35 146.50000000000003 183.50000000000003 48.500000000000007 1.5000000000000002 4.5000000000000009 1.0000000180025095e-35 2.5000000000000004 392.50000000000006 341.50000000000006 0.2785599976778031 1.0000000180025095e-35 106697.27343750001 44.500000000000007
decision_type=2 1 2 2 2 2 2 2 2 2 2 2 2 2 2 2 2 2 2 2 2 2 2 2 2 2 2 2 2 2
left_child=1 3 12 5 6 7 18 -1 11 16 15 13 -3 26 -11 -4 27 -17 -2 -6 21 -20 28 -8 -7 -25 -9 -10 -15 -16
right_child=4 2 10 -5 19 24 23 8 9 14 -12 -13 -14 22 29 17 -18 -19 20 -21 -22 -23 -24 25 -26 -27 -28 -29 -30 -31
leaf_value=0.072494624121522425 -0.03321634302504848 -0.019576032199178171 0.054858647307213418 -0.097543887942667037 -0.06165716491339971 0.073516643567804657 -0.055263255881073871 0.083431230330626313 0.026141114031480117 -0.056145389844894047 -0.097870112804591763 -0.091230972999259086 -0.095014866171470772 0.044146552739794495 0.04900330211419783 0.031096135556526568 -0.072576605737364047 -0.043248263054141978 0.037678374593720844 -0.091109676226770714 0.047429261490153807 -0.075226557923337725 0.057692603072391858 -0.034939060462026078 -0.0089142663604201214 0.069147313041098557 0.0066539834608702608 -0.05469604788680113 0.0076990589956925596 -0.047644502050628229
leaf_weight=155.42340064048767 44.954303443431854 32.096857890486717 97.716487869620323 63.665603339672089 310.46222086250782 585.44719144701958 208.28877244889736 17.510842382907867 34.653300598263741 21.349098339676857 14.484777644276617 11.9722743332386 245.09268216788769 161.35377071797848 76.56545253098011 51.370727241039276 64.541522949934006 40.67286129295826 24.05998969078064 256.81546169519424 91.513801902532578 20.124624907970428 293.34821596741676 26.83821077644825 14.422014981508253 13.121368274092672 197.39325365424156 23.219490513205528 94.802851751446724 8.7715190798044187
leaf_count=650 181 131 404 255 1247 2476 838 73 143 87 58 48 982 670 317 212 261 165 98 1028 375 81 1221 108 61 53 809 94 391 36
internal_value=0 0.0222825 -0.0418217 0.0391984 -0.0520407 0.0441427 -0.0216863 0.0299884 0.023418 -0.0127147 0.0185139 0.0340803 -0.0862795 0.0360429 0.0200157 0.0273977 -0.0412398 -0.00175568 0.0123986 -0.0749908 0.02751 -0.0137461 0.0450899 -0.0464902 0.0715348 -0.000760631 0.01291 -0.00629205 0.0306574 0.0390692
internal_weight=0 2305.87 481.434 1824.44 996.179 1760.77 428.901 1160.9 1005.48 229.1 204.245 776.381 277.19 764.409 106.686 189.76 122.414 92.0436 180.653 567.278 135.698 44.1846 549.505 248.248 599.869 39.9596 214.904 57.8728 256.157 85.337
internal_count=13553 9544 1952 7592 4009 7337 1734 4800 4150 938 839 3212 1113 3164 440 781 498 377 735 2275 554 179 2282 999 2537 161 882 237 1061 353
cat_boundaries=0 1
cat_threshold=1
shrinkage=0.05


Tree=4
num_leaves=31
num_cat=1
split_feature=11 12 12 15 21 15 11 11 48 84 7 12 14 10 16 10 11 46 17 17 12 12 7 59 8 8 4 4 13 7
split_gain=2172.47 315.406 280.708 230.461 185.754 145.118 126.897 107.72 103.692 84.094 72.5605 66.4902 73.3471 104.255 61.3356 55.2154 53.6259 51.7165 50.7338 44.1444 43.9469 42.4865 41.3009 39.9908 36.9798 68.032 47.4958 35.8579 38.7678 34.762
threshold=44.500000000000007 42.500000000000007 22.978752136230472 415.50000000000006 0 125.50000000000001 119.50000000000001 10.500000000000002 1.0000000180025095e-35 1.0000000180025095e-35 955.50000000000011 13.500000000000002 95.500000000000014 1.5000000000000002 0.94837152957916271 1.5000000000000002 10.500000000000002 1.0000000180025095e-35 1141744.0000000002 573453.84375000012 24.500000000000004 59.500000000000007 1121.5000000000002 1.0000000180025095e-35 18.500000000000004 24.500000000000004 0.4332768470048905 0.49473500251770025 -63.499999999999993 1226.5000000000002
decision_type=2 2 2 2 1 2 2 2 2 2 2 2 2 2 2 2 2 2 2 2 2 2 2 2 2 2 2 2 2 2
left_child=2 3 5 4 8 -1 9 18 20 15 -6 12 -8 -14 -7 17 -16 29 -4 -18 27 -9 -10 -15 -17 26 -26 28 -2 -5
right_child=1 -3 7 6 10 14 11 21 22 -11 -12 -13 13 23 16 24 19 -19 -20 -21 -22 -23 -24 -25 25 -27 -28 -29 -30 -31
leaf_value=0.0083658513879499834 0.010927904163127266 -0.083370523661854323 0.05092606103009481 -0.056274698866503506 -0.090352731242359763 0.073098672121297212 -0.088288891615516396 -0.012567242957885173 0.072950054114520477 -0.054573736616577967 -0.039785840118683899 -0.061870919712118277 -0.042510755149287364 0.055726436029814336 0.066631114690423349 0.046598639621659527 0.041251962338382638 0.031130250273994631 -0.08111564660607562 -0.026636103197454054 -0.068786014140866394 -0.069844670674921158 -0.020078135292049229 -0.029310406785841011 -0.066778380989716099 0.046047916378101732 0.047201989933188124 -0.058645414720438799 -0.034577743832029981 -0.0015278089144552382
leaf_weight=150.58769746124744 85.572173044085503 304.77537076175213 81.022895723581314 51.902176082134247 235.43344435095787 521.97894541919231 28.913039892911911 105.22224575281143 34.693523272871971 48.772118151187897 101.53934626281261 124.38149957358837 80.022028520703316 64.875465631484985 250.16039632260799 142.99863910675049 289.84332068264484 60.724346220493317 7.9922982156276694 26.102258905768394 72.735563784837723 46.765393331646919 18.184207990765572 17.570005863904953 34.667666330933571 52.504121974110603 12.412086591124533 58.897434115409851 103.30822755396366 65.696853518486023
leaf_count=620 346 1223 342 210 947 2254 116 432 148 196 408 501 324 268 1066 592 1212 251 33 106 292 189 75 71 141 218 51 237 415 269
internal_value=0 -0.0370102 0.044763 -0.0275642 -0.0482012 0.0543691 -0.00889972 -0.00460904 -0.0239119 0.00757883 -0.0751155 -0.0334106 -0.0149138 -0.00185577 0.0607359 0.0147807 0.0493367 -0.00634122 0.0390706 0.0356433 -0.0346141 -0.0301911 0.0409584 0.0376042 0.0303075 0.00691407 -0.0367286 -0.0245829 -0.0139614 -0.0256903
internal_weight=0 1800.58 1479.68 1495.8 710.364 1238.67 785.44 241.003 373.391 469.678 336.973 315.762 191.381 162.468 1088.08 420.906 566.106 178.323 89.0152 315.946 320.513 151.988 52.8777 82.4455 242.583 99.5839 47.0798 247.778 188.88 117.599
internal_count=13553 7299 6254 6076 2868 5258 3208 996 1513 1928 1355 1280 779 663 4638 1732 2384 730 375 1318 1290 621 223 339 1002 410 192 998 761 479
cat_boundaries=0 1
cat_threshold=1
shrinkage=0.05


Tree=5
num_leaves=31
num_cat=1
split_feature=11 18 12 15 6 21 18 6 6 12 15 12 61 11 7 17 92 10 23 11 13 15 38 10 43 7 14 10 7 7
split_gain=2076.12 441.965 302.141 243.582 224.463 176.487 169.427 121.96 115.881 83.8642 83.7712 78.1829 66.2025 64.507 62.3955 52.7335 54.6714 57.3878 45.8219 45.2764 44.7064 40.341 44.3962 37.3714 36.9057 36.4429 33.3087 35.8843 32.7403 32.2718
threshold=44.500000000000007 1.0000000180025095e-35 42.500000000000007 415.50000000000006 1.0000000180025095e-35 0 1.0000000180025095e-35 1.0000000180025095e-35 1.0000000180025095e-35 1.0000000180025095e-35 125.50000000000001 42.500000000000007 1.0000000180025095e-35 76.500000000000014 980.50000000000011 4650.1005859375009 1.0000000180025095e-35 4.5000000000000009 1.0000000180025095e-35 17.500000000000004 59.500000000000007 1798.5000000000002 1.0000000180025095e-35 3.5000000000000004 1.0000000180025095e-35 553.50000000000011 360.50000000000006 2.5000000000000004 1142.5000000000002 1652.5000000000002
decision_type=2 2 2 2 2 1 2 2 2 2 2 2 2 2 2 2 2 2 2 2 2 2 2 2 2 2 2 2 2 2
left_child=1 4 3 5 10 8 7 13 12 20 24 19 23 -5 -7 -15 18 28 -17 -6 21 22 -9 -2 -1 -11 -10 -28 -18 -27
right_child=2 -3 -4 6 11 14 -8 9 26 25 -12 -13 -14 15 -16 16 17 -19 -20 -21 -22 -23 -24 -25 -26 29 27 -29 -30 -31
leaf_value=0.026217575270150718 0.0094220674046321846 -0.092928564513958214 -0.080409017523819404 0.039657752183574584 0.047124182917457173 -0.086799444630548284 -0.092663426075869748 -0.054621174178232174 -0.064670083027728753 0.065239361738471655 0.062057128809195776 -0.072787814693394001 -0.028793606910059995 -0.077390953193854084 -0.040170546377622386 0.0066289828956673557 -0.054284848276794542 0.076424477043564296 -0.057904534267627365 -0.012548988535948692 -0.061695786597972882 -0.094685739197623561 0.051127825496825534 0.074220510401786288 -0.092710617000839601 -0.056962791650778256 -0.042639082666346938 0.086102969260196269 0.02014380083200315 0.026991941850638492
leaf_weight=126.47282628715038 82.331098705530167 56.136080399155617 311.52105747163296 170.61082531511784 55.169832944869995 244.02258175611496 53.872327893972397 11.682739138603209 139.94318129122257 7.0005882680416098 1094.8487587869167 33.61935718357563 100.99936103820801 20.105994269251823 101.62034359574318 69.26946759223938 17.979631617665291 42.018768548965454 45.624416023492813 75.000486761331558 17.952078133821487 6.4747961908578864 65.969297930598259 30.491809532046318 6.8780070394277564 163.59168253839016 17.193898543715481 7.8991957306861869 82.91104020178318 12.307683497667311
leaf_count=525 335 226 1257 712 229 990 217 47 561 29 4753 135 408 81 408 285 73 178 185 302 72 26 273 132 28 656 69 32 341 50
internal_value=0 0.0446206 -0.0355708 -0.0263319 0.0501677 -0.047254 -0.00708037 -0.000794662 -0.0236828 -0.0263725 0.0574999 -0.00481365 0.000611306 0.0154569 -0.0730904 0.000599792 0.00668226 0.0273277 -0.0189973 0.0127422 0.0099345 0.0252199 0.0352179 0.0269347 0.0200835 -0.046636 -0.0551583 -0.00211165 0.00687994 -0.0510885
internal_weight=0 1448.13 1823.39 1511.87 1391.99 724.501 787.371 733.499 378.859 284.979 1228.2 163.79 213.822 448.52 345.643 277.909 257.803 142.909 114.894 130.17 102.079 84.1268 77.652 112.823 133.351 182.9 165.036 25.0931 100.891 175.899
internal_count=13615 6198 7417 6160 5972 2935 3225 3008 1537 1153 5306 666 875 1855 1398 1143 1062 592 470 531 418 346 320 467 553 735 662 101 414 706
cat_boundaries=0 1
cat_threshold=1
shrinkage=0.05


Tree=6
num_leaves=31
num_cat=1
split_feature=11 18 12 15 21 12 18 10 13 51 70 11 15 7 14 62 92 8 8 17 17 7 14 17 3 14 17 12 59 17
split_gain=1895.15 404.377 276.292 221.101 162.192 162.079 154.523 107.617 97.4247 93.8816 85.3042 85.1285 72.5252 69.8172 65.2313 59.2143 44.8273 53.9949 50.1132 45.0185 42.0391 39.7522 39.193 38.4388 36.7392 43.1572 36.5296 36.4662 33.4941 33.3853
threshold=44.500000000000007 1.0000000180025095e-35 42.500000000000007 415.50000000000006 0 24.500000000000004 1.0000000180025095e-35 1.5000000000000002 45.500000000000007 1.0000000180025095e-35 1.0000000180025095e-35 18.500000000000004 125.50000000000001 1312.5000000000002 178.50000000000003 1.0000000180025095e-35 1.0000000180025095e-35 17.500000000000004 24.500000000000004 3184.8400878906255 2658822.0000000005 1133.5000000000002 21.500000000000004 780514.46875000012 1.0000000180025095e-35 360.50000000000006 24204.630859375004 16.500000000000004 1.0000000180025095e-35 290538.54687500006
decision_type=2 2 2 2 1 2 2 2 2 2 2 2 2 2 2 2 2 2 2 2 2 2 2 2 2 2 2 2 2 2
left_child=1 5 3 4 9 12 7 10 16 24 -5 23 22 -12 -10 -6 17 27 29 -18 28 -11 -1 -7 -2 -26 -13 -9 -14 -19
right_child=2 -3 -4 6 15 11 -8 8 14 21 13 26 20 -15 -16 -17 19 18 -20 -21 -22 -23 -24 -25 25 -27 -28 -29 -30 -31
leaf_value=0.067164638093215115 -0.017407372669375989 -0.089123037194166671 -0.077061492755616801 0.012426128821388769 -0.08286479779032041 0.050955307852714821 -0.088892067175753764 0.052430370014149921 -0.057170813877275066 0.068784078635706972 -0.064843384485104391 -0.080967316502944253 0.064441262282967135 -0.0050198594026380243 0.053911569623213529 -0.036369357053890369 -0.094624515178583113 0.025290079329677497 0.033428154787193375 0.054955999015640002 -0.065233984418875512 -0.022181854583864732 0.0053834482197449261 -0.052301366349376245 -0.062005587136759438 0.017049833361401017 -0.0091357255747858187 -0.0090580230469830131 0.038499838805600581 -0.072915290058657517
leaf_weight=34.414808019995689 177.31985440850258 55.618888601660728 308.8658202290535 112.42435085773468 248.19451141357422 86.938291564583778 53.36235673725605 80.377399310469627 62.525294959545135 36.031025305390358 126.26407213509083 22.777585551142693 885.18926449120045 79.464580476284027 16.758452549576759 94.568782702088356 5.2239163964986792 11.212695091962813 27.868473872542381 135.61346364021301 6.6596746295690528 18.014803633093834 101.03250320255756 10.05558320879936 126.68960651755333 19.987097159028053 79.384437128901482 34.446238055825233 144.780302926898 37.926672294735909
leaf_count=144 714 226 1257 464 1017 375 217 338 253 159 509 93 3921 325 70 381 21 46 116 571 27 74 418 41 509 81 327 141 626 154
internal_value=0 0.0430425 -0.0339873 -0.0251431 -0.0451281 0.0484033 -0.00675655 -0.00075338 0.0161165 -0.022544 -0.022597 0.00670114 0.0554893 -0.041736 -0.033691 -0.0700367 0.027987 0.0122604 -0.0201314 0.0494078 0.0599851 0.0384629 0.021081 0.0402504 -0.0327206 -0.051233 -0.025151 0.0339843 0.0607947 -0.0505066
internal_weight=0 1426.85 1813.14 1504.27 720.806 1371.23 783.468 730.106 411.953 378.042 318.153 199.156 1172.08 205.729 79.2837 342.763 332.669 191.831 77.0078 140.837 1036.63 54.0458 135.447 96.9939 323.997 146.677 102.162 114.824 1029.97 49.1394
internal_count=13615 6198 7417 6160 2935 5972 3225 3008 1710 1537 1298 836 5136 834 323 1398 1387 795 316 592 4574 233 562 416 1304 590 420 479 4547 200
cat_boundaries=0 1
cat_threshold=1
shrinkage=0.05


Tree=7
num_leaves=31
num_cat=1
split_feature=11 18 12 15 21 6 18 6 11 15 7 61 6 12 14 10 10 12 99 15 59 12 43 12 10 13 95 7 14 10
split_gain=1731.91 328.848 279.38 216.151 169.645 167.701 162.232 136.373 126.528 90.8029 67.5612 66.6809 60.3252 58.6416 64.1042 95.967 50.4967 48.6851 38.8305 36.6536 36.4364 36.7941 33.2325 31.6379 30.2905 32.891 30.1894 29.631 28.963 35.0922
threshold=37.500000000000007 1.0000000180025095e-35 42.500000000000007 452.50000000000006 0 1.5000000000000002 1.0000000180025095e-35 1.0000000180025095e-35 119.50000000000001 125.50000000000001 983.50000000000011 1.0000000180025095e-35 1.0000000180025095e-35 16.500000000000004 93.500000000000014 1.5000000000000002 3.5000000000000004 1.0000000180025095e-35 1.0000000180025095e-35 1798.5000000000002 1.0000000180025095e-35 76.500000000000014 1.0000000180025095e-35 22.978752136230472 2.5000000000000004 13.500000000000002 1.0000000180025095e-35 1310.5000000000002 357.50000000000006 2.5000000000000004
decision_type=2 2 2 2 1 2 2 2 2 2 2 2 2 2 2 2 2 2 2 2 2 2 2 2 2 2 2 2 2 2
left_child=1 5 3 4 7 9 8 11 12 22 -6 16 18 14 -10 27 26 19 -5 -14 21 -11 23 -1 -12 -26 -2 -16 -9 -30
right_child=2 -3 -4 6 10 -7 -8 28 13 20 24 -13 17 -15 15 -17 -18 -19 -20 -21 -22 -23 -24 -25 25 -27 -28 -29 29 -31
leaf_value=0.034229973177320482 0.033799850964567411 -0.085823777105862309 -0.073389780992223652 0.04041917287980426 -0.079648418399077867 -0.042049587146358675 -0.085646871734972693 -0.061226797358152889 -0.078564882539786524 0.063564140128552285 -0.046021727713913732 -0.023883237292576846 0.038652945595830233 -0.056713571682710552 -0.068997206794684338 0.042962827262857245 0.072334390536232238 -0.033615604349052891 0.0017879703534769528 -0.088116753926481189 0.037876924309084764 -0.054380724481885856 -0.089253450139478191 -0.024627816524333591 0.06140966656932504 -0.067010211101466002 -0.021458421160855636 -0.0062671050298805271 -0.04183913826588076 0.082284484540218056
leaf_weight=103.57478524744511 51.774843394756317 46.412198409438133 312.50300040841103 242.38743607699871 252.58074237406254 47.844335377216339 55.841463327407837 152.01733103394508 27.25354315340519 866.63956926763058 87.939130321145058 117.37188173830509 54.23753434419632 92.578197836875916 35.514821827411652 79.429280683398247 42.94424794614315 83.028242543339729 88.908381536602974 6.3718566298484793 178.57353185117245 6.6632521897554389 7.1702622622251502 29.287948206067085 15.082467824220659 7.4482665210962287 47.296431690454483 40.058131232857704 19.421550795435909 8.056414380669592
leaf_count=434 212 191 1286 1035 1051 195 230 612 110 3914 354 475 226 374 143 333 193 334 370 26 779 28 29 121 61 30 195 163 78 33
internal_value=0 0.0448446 -0.0301318 -0.0217225 -0.0400989 0.0497364 -0.00342999 -0.0191828 0.00269339 0.0534208 -0.0653839 0.00400251 0.0183183 -0.0243077 -0.00784687 0.00458725 0.0270493 -0.00874472 0.0300519 0.0253257 0.0584562 0.0626642 0.015597 0.0212555 -0.0327692 0.0189563 0.00741966 -0.0357465 -0.0526877 -0.00544666
internal_weight=0 1286.17 1920.05 1607.54 801.933 1239.75 805.609 438.883 749.767 1191.91 363.051 259.387 474.933 274.834 182.256 155.002 142.016 143.638 331.296 60.6094 1051.88 873.303 140.033 132.863 110.47 22.5307 99.0713 75.573 179.495 27.478
internal_count=13615 5691 7924 6638 3294 5500 3344 1798 3114 5305 1496 1075 1991 1123 749 639 600 586 1405 252 4721 3942 584 555 445 91 407 306 723 111
cat_boundaries=0 1
cat_threshold=1
shrinkage=0.05


Tree=8
num_leaves=31
num_cat=1
split_feature=11 18 12 6 15 21 18 6 6 10 15 15 12 109 3 102 7 99 16 11 14 12 14 10 59 43 14 8 8 88
split_gain=1587.54 341.192 234.098 189.692 183.02 139.253 129.931 96.5486 91.4537 76.6994 70.9188 68.4644 61.7782 58.9213 68.1638 57.3591 54.7889 52.7897 43.3331 38.654 38.1928 44.6472 33.1381 32.2624 30.8105 29.8276 28.745 27.4377 41.0136 27.3957
threshold=44.500000000000007 1.0000000180025095e-35 42.500000000000007 1.0000000180025095e-35 415.50000000000006 0 1.0000000180025095e-35 2.5000000000000004 1.0000000180025095e-35 1.5000000000000002 125.50000000000001 947.50000000000011 42.500000000000007 1.0000000180025095e-35 1.0000000180025095e-35 1.0000000180025095e-35 980.50000000000011 1.0000000180025095e-35 0.94837152957916271 12.500000000000002 97.500000000000014 6.5000000000000009 364.50000000000006 2.5000000000000004 1.0000000180025095e-35 1.0000000180025095e-35 196.50000000000003 22.500000000000004 23.500000000000004 1.0000000180025095e-35
decision_type=2 2 2 2 2 1 2 2 2 2 2 2 2 2 2 2 2 2 2 2 2 2 2 2 2 2 2 2 2 2
left_child=1 3 4 10 5 8 7 9 15 11 25 -6 19 14 26 23 -7 -15 -13 -5 -19 27 -20 -2 -12 -1 -11 29 -29 -22
right_child=2 -3 -4 12 6 16 -8 -9 -10 13 24 18 -14 17 -16 -17 -18 20 22 -21 21 -23 -24 -25 -26 -27 -28 28 -30 -31
leaf_value=0.02329664843022191 0.0071042988537688909 -0.082938257759453765 -0.07135041664070324 0.051267016539989586 -0.042677996198692704 -0.078107821425773535 -0.082687170593531062 -0.046171680004054194 -0.048543579577256843 0.074326727638435772 0.060437871837856018 0.050392122274426909 -0.066406478716491996 0.051903706808581744 -0.079157501954231935 -0.021334984132231047 -0.034086968602352261 -0.02837821243916179 0.00087958431101388943 -0.0081575431451447519 0.070258054129049438 -0.033592970943996582 -0.08918371891347901 0.067960988085959115 0.03707251162656186 -0.082971363956011457 -0.041903377890916263 -0.11876690117726663 0.038322299237562196 -0.043965479794432424
leaf_weight=124.65427601337433 55.027692660689354 54.061587616801262 301.39039941132069 39.542037233710289 114.96890388429165 233.58872851729393 51.825299456715584 100.61983670294285 163.55819973349571 15.870391458272936 866.33687299489975 43.768846109509468 33.165234565734863 147.06864009797573 28.507555603981018 121.09142281115055 101.35171334445477 45.610445216298103 99.637144654989243 88.866064593195915 57.36466009914875 24.180189788341522 11.379970148205755 36.04242080450058 168.53690452873707 6.972527563571929 8.0013164579868299 5.8470530211925533 14.358493760228155 5.7781783342361441
leaf_count=525 226 226 1257 171 469 990 217 409 662 68 4006 185 135 635 116 487 408 189 408 360 244 98 46 162 747 28 33 24 60 24
internal_value=0 0.0401909 -0.0311723 0.0452031 -0.0230203 -0.0413456 -0.00621174 -0.000729616 -0.0204481 0.00661743 0.0522359 -0.0134504 -0.00557092 0.0219708 -0.0269625 0.001211 -0.0647873 0.0305085 0.00825874 0.0101417 0.00996138 0.0262239 -0.00835249 0.0311893 0.0566326 0.0176674 0.0353687 0.0435774 -0.00713596 0.0598055
internal_weight=0 1382.14 1786.84 1328.07 1485.45 710.66 774.787 722.962 375.72 622.342 1166.5 269.755 161.573 352.587 52.3793 212.162 334.94 300.208 154.786 128.408 153.139 107.529 111.017 91.0701 1034.87 131.627 23.8717 83.3484 20.2055 63.1428
internal_count=13615 6198 7417 5972 6160 2935 3225 3008 1537 2599 5306 1108 666 1491 217 875 1398 1274 639 531 639 450 454 388 4753 553 101 352 84 268
cat_boundaries=0 1
cat_threshold=1
shrinkage=0.05


Tree=9
num_leaves=31
num_cat=1
split_feature=11 18 6 21 48 18 6 48 11 15 11 12 14 10 67 5 15 13 18 17 12 10 17 14 109 23 99 15 15 11
split_gain=1459.38 278.358 239.013 172.239 194.01 160.977 145.397 107.613 88.8597 81.6065 55.631 53.6085 52.2059 47.0709 45.9984 45.3603 45.1934 40.6827 39.8671 36.643 34.8809 31.3628 44.305 31.0976 30.8815 39.3145 35.2579 28.8469 28.737 28.5972
threshold=37.500000000000007 1.0000000180025095e-35 1.5000000000000002 0 1.0000000180025095e-35 1.0000000180025095e-35 1.5000000000000002 1.0000000180025095e-35 93.500000000000014 125.50000000000001 165.50000000000003 19.500000000000004 392.50000000000006 2.5000000000000004 1.0000000180025095e-35 9.5000000000000018 1328.5000000000002 113.50000000000001 1.0000000180025095e-35 2435133.1250000005 5.5000000000000009 2.5000000000000004 1963723.0000000002 19.500000000000004 1.0000000180025095e-35 1.0000000180025095e-35 1.0000000180025095e-35 595.50000000000011 947.50000000000011 8.5000000000000018
decision_type=2 2 2 1 2 2 2 2 2 2 2 2 2 2 2 2 2 2 2 2 2 2 2 2 2 2 2 2 2 2
left_child=1 6 3 5 10 7 9 8 14 23 18 13 17 28 24 -15 19 -9 21 -10 -11 -5 -23 -1 25 -2 -26 -6 -4 -25
right_child=2 -3 11 4 27 -7 -8 12 16 20 -12 -13 -14 15 -16 -17 -18 -19 -20 -21 -22 22 -24 29 26 -27 -28 -29 -30 -31
leaf_value=0.056970500038931088 0.024249997191366116 -0.080266041411022837 -0.063906979530947594 -0.003445049014202554 -0.07767742336382033 -0.082648988275068488 -0.039058846324659356 0.052094880909002161 -0.039169899055133413 0.061434876339759484 -0.045866858237653046 -0.069728490533799106 -0.10788014200847383 0.039041384837103552 -0.0063852164492940707 -0.072973159576627603 0.0092379535450617355 -0.097720805929446625 -0.08215472524324946 0.0741831196911788 0.041447960744809054 0.071651134903861088 -0.030849198143394509 0.037313993875917287 0.050781268241608016 -0.088656161732642152 -0.013776864319174098 -0.004216100247711187 -0.0070716274048200816 -0.017478210146067
leaf_weight=32.57476581633091 22.814906135201454 44.82514813542366 96.908798903226852 107.69716390967369 224.70150971412659 61.121088489890099 47.523542284965515 132.94222518801689 244.83116853237152 691.48797471821308 76.012866258621216 321.14219650626183 5.6657004207372657 33.108234539628029 204.4635031670332 12.431419640779493 71.210990995168686 4.6913353949785224 12.07533425092697 7.3434442579746237 318.99163244664669 38.448454797267914 14.525245532393454 36.055164635181427 114.92510722577572 11.64556300640106 25.919019863009453 14.208538934588431 28.865032508969307 70.138965651392937
leaf_count=140 97 191 396 443 968 258 195 598 996 3276 314 1346 25 138 846 51 299 19 51 32 1445 166 61 154 489 48 106 59 118 290
internal_value=0 0.0420621 -0.0277323 -0.0171624 -0.0411281 -0.00428486 0.0466439 0.0013737 -0.00667448 0.0501878 -0.0102218 -0.0576795 0.0408652 -0.0350926 0.00972759 0.00846364 -0.0259362 0.0469883 0.00546302 -0.035869 0.0551253 0.012048 0.0435458 0.0142342 0.0285205 -0.0139055 0.0389009 -0.0733085 -0.0508633 0.00112491
internal_weight=0 1241.6 1887.7 1395.24 487.669 907.574 1196.77 846.453 703.154 1149.25 248.759 492.456 143.299 171.313 379.768 45.5397 323.386 137.634 172.746 252.175 1010.48 160.671 52.9737 138.769 175.305 34.4605 140.844 238.91 125.774 106.194
internal_count=13615 5691 7924 5875 2062 3813 5500 3555 2913 5305 1035 2049 642 703 1586 189 1327 617 721 1028 4721 670 227 584 740 145 595 1027 514 444
cat_boundaries=0 1
cat_threshold=1
shrinkage=0.05


end of trees

feature_importances:
feature_12=30
feature_11=29
feature_15=26
feature_6=22
feature_7=22
feature_10=22
feature_18=20
feature_14=18
feature_17=15
feature_13=13
feature_21=10
feature_48=10
feature_8=6
feature_59=4
feature_99=4
feature_4=3
feature_23=3
feature_43=3
feature_61=3
feature_109=3
feature_3=2
feature_16=2
feature_24=2
feature_25=2
feature_67=2
feature_70=2
feature_88=2
feature_92=2
feature_5=1
feature_9=1
feature_19=1
feature_26=1
feature_38=1
feature_44=1
feature_46=1
feature_47=1
feature_51=1
feature_62=1
feature_83=1
feature_84=1
feature_85=1
feature_87=1
feature_90=1
feature_95=1
feature_100=1
feature_102=1

parameters:
[boosting: gbdt]
[objective: binary]
[metric: binary_logloss]
[tree_learner: serial]
[device_type: cpu]
[data: ]
[valid: ]
[num_iterations: 10]
[learning_rate: 0.05]
[num_leaves: 31]
[num_threads: 0]
[deterministic: 0]
[force_col_wise: 0]
[force_row_wise: 0]
[histogram_pool_size: -1]
[max_depth: -1]
[min_data_in_leaf: 20]
[min_sum_hessian_in_leaf: 0.001]
[bagging_fraction: 0.8]
[pos_bagging_fraction: 1]
[neg_bagging_fraction: 1]
[bagging_freq: 5]
[bagging_seed: 3]
[feature_fraction: 0.9]
[feature_fraction_bynode: 1]
[feature_fraction_seed: 2]
[extra_trees: 0]
[extra_seed: 6]
[early_stopping_round: 0]
[first_metric_only: 0]
[max_delta_step: 0]
[lambda_l1: 0]
[lambda_l2: 0]
[min_gain_to_split: 0]
[drop_rate: 0.1]
[max_drop: 50]
[skip_drop: 0.5]
[xgboost_dart_mode: 0]
[uniform_drop: 0]
[drop_seed: 4]
[top_rate: 0.2]
[other_rate: 0.1]
[min_data_per_group: 100]
[max_cat_threshold: 32]
[cat_l2: 10]
[cat_smooth: 10]
[max_cat_to_onehot: 4]
[top_k: 20]
[monotone_constraints: ]
[monotone_constraints_method: basic]
[monotone_penalty: 0]
[feature_contri: ]
[forcedsplits_filename: ]
[refit_decay_rate: 0.9]
[cegb_tradeoff: 1]
[cegb_penalty_split: 0]
[cegb_penalty_feature_lazy: ]
[cegb_penalty_feature_coupled: ]
[path_smooth: 0]
[interaction_constraints: ]
[verbosity: 0]
[saved_feature_importance_type: 0]
[max_bin: 255]
[max_bin_by_feature: ]
[min_data_in_bin: 3]
[bin_construct_sample_cnt: 200000]
[data_random_seed: 1]
[is_enable_sparse: 1]
[enable_bundle: 1]
[use_missing: 1]
[zero_as_missing: 0]
[feature_pre_filter: 1]
[pre_partition: 0]
[two_round: 0]
[header: 0]
[label_column: ]
[weight_column: ]
[group_column: ]
[ignore_column: ]
[categorical_feature: 21]
[forcedbins_filename: ]
[objective_seed: 5]
[num_class: 1]
[is_unbalance: 0]
[scale_pos_weight: 1]
[sigmoid: 1]
[boost_from_average: 1]
[reg_sqrt: 0]
[alpha: 0.9]
[fair_c: 1]
[poisson_max_delta_step: 0.7]
[tweedie_variance_power: 1.5]
[lambdarank_truncation_level: 30]
[lambdarank_norm: 1]
[label_gain: ]
[eval_at: ]
[multi_error_top_k: 1]
[auc_mu_weights: ]
[num_machines: 1]
[local_listen_port: 12400]
[time_out: 120]
[machine_list_filename: ]
[machines: ]
[gpu_platform_id: -1]
[gpu_device_id: -1]
[gpu_use_dp: 0]
[num_gpu: 1]

end of parameters

pandas_categorical:[]
